svm_type c_svc
kernel_type linear
nr_class 2
total_sv 2
rho -0.7554347854632557
label 1 -1
nr_sv 1 1
SV
0.019991315702177485 1:0.3010299956639812 2:0.3010299956639812 3:0.3010299956639812 4:0.3010299956639812 5:0.3010299956639812 6:0.0 7:0.6020599913279624 8:0.0 9:0.0 10:0.3010299956639812 11:0.0 12:0.3010299956639812 13:0.9030899869919435 14:0.9030899869919435 15:0.3010299956639812 16:0.0 17:0.9030899869919435 18:0.6020599913279624 19:0.3010299956639812 20:0.3010299956639812 21:0.3010299956639812 22:0.3010299956639812 23:0.3010299956639812 24:0.3010299956639812 25:0.6020599913279624 26:0.3010299956639812 27:0.3010299956639812 28:0.3010299956639812 29:0.3010299956639812 30:0.0 31:0.3010299956639812 32:0.3010299956639812 33:0.0 34:0.3010299956639812 35:0.3010299956639812 36:0.3010299956639812 37:0.6020599913279624 38:0.3010299956639812 39:0.3010299956639812 40:0.6020599913279624 41:0.9030899869919435 42:0.0 43:0.3010299956639812 44:0.0 45:0.3010299956639812 46:0.3010299956639812 47:0.9030899869919435 48:0.0 49:0.3010299956639812 50:0.3010299956639812 51:0.3010299956639812 52:0.6020599913279624 53:0.6020599913279624 54:0.0 55:0.0 56:0.0 57:0.6020599913279624 58:0.3010299956639812 59:0.3010299956639812 60:0.3010299956639812 61:0.3010299956639812 62:0.3010299956639812 63:0.3010299956639812 64:0.3010299956639812 65:0.6020599913279624 66:0.0 67:0.3010299956639812 68:0.3010299956639812 69:0.3010299956639812 70:0.6020599913279624 71:0.0 72:0.3010299956639812 73:0.6020599913279624 74:0.0 75:0.3010299956639812 76:0.3010299956639812 77:0.3010299956639812 78:0.0 79:0.3010299956639812 
-0.019991315702177485 6:0.0 8:0.0 9:0.0 11:0.0 16:0.0 30:0.0 33:0.0 42:0.0 44:0.0 48:0.0 54:0.0 55:0.0 56:0.0 66:0.0 71:0.0 74:0.0 78:0.0 80:0.3010299956639812 81:0.3010299956639812 82:0.3010299956639812 83:0.3010299956639812 84:0.3010299956639812 85:0.3010299956639812 86:0.3010299956639812 87:0.3010299956639812 88:0.3010299956639812 89:0.3010299956639812 90:0.3010299956639812 91:0.3010299956639812 92:1.2041199826559248 93:0.3010299956639812 94:0.9030899869919435 95:0.3010299956639812 96:0.3010299956639812 97:0.6020599913279624 98:0.3010299956639812 99:0.3010299956639812 100:0.3010299956639812 101:0.6020599913279624 102:0.3010299956639812 103:0.3010299956639812 104:1.806179973983887 105:0.3010299956639812 106:0.3010299956639812 107:0.3010299956639812 108:0.3010299956639812 109:0.3010299956639812 110:1.806179973983887 111:0.3010299956639812 112:1.505149978319906 113:0.3010299956639812 114:0.3010299956639812 115:2.1072099696478683 116:0.3010299956639812 117:0.3010299956639812 118:1.806179973983887 119:0.3010299956639812 120:1.806179973983887 121:0.3010299956639812 122:0.3010299956639812 123:0.3010299956639812 124:0.3010299956639812 125:0.3010299956639812 126:1.505149978319906 127:0.3010299956639812 128:1.806179973983887 129:0.3010299956639812 130:0.3010299956639812 131:0.3010299956639812 132:0.3010299956639812 133:0.3010299956639812 134:1.806179973983887 135:0.3010299956639812 136:2.1072099696478683 137:0.3010299956639812 138:0.3010299956639812 139:1.806179973983887 140:0.3010299956639812 141:0.6020599913279624 142:5.418539921951662 143:2.1072099696478683 144:0.3010299956639812 145:0.3010299956639812 146:0.3010299956639812 147:0.3010299956639812 148:2.1072099696478683 149:0.3010299956639812 150:0.3010299956639812 151:0.3010299956639812 152:0.3010299956639812 153:0.6020599913279624 154:0.3010299956639812 155:1.806179973983887 156:0.3010299956639812 157:0.3010299956639812 158:0.3010299956639812 159:0.3010299956639812 160:0.3010299956639812 161:0.3010299956639812 162:0.6020599913279624 163:0.6020599913279624 164:0.3010299956639812 
